37 100
</s> 0.004003 0.004419 -0.003830 -0.003278 0.001367 0.003021 0.000941 0.000211 -0.003604 0.002218 -0.004356 0.001250 -0.000751 -0.000957 -0.003316 -0.001882 0.002579 0.003025 0.002969 0.001597 0.001545 -0.003803 -0.004096 0.004970 0.003801 0.003090 -0.000604 0.004016 -0.000495 0.000735 -0.000149 -0.002983 0.001312 -0.001337 -0.003825 0.004754 0.004379 -0.001095 -0.000226 0.000509 -0.003638 -0.004007 0.004555 0.000063 -0.002582 -0.003042 -0.003076 0.001697 0.000201 0.001331 -0.004214 -0.003808 -0.000130 0.001144 0.002550 -0.003170 0.004080 0.000927 0.001120 -0.000608 0.002986 -0.002288 -0.002097 0.002158 -0.000753 0.001031 0.001805 -0.004089 -0.001983 0.002914 0.004232 0.003932 -0.003047 -0.002108 -0.000909 0.002001 -0.003788 0.002998 0.002788 -0.001599 -0.001552 -0.002238 0.004229 0.003912 -0.001180 0.004215 0.004820 0.001815 0.004983 -0.003111 -0.001532 -0.002107 -0.002907 0.002815 0.001579 0.000425 -0.002194 0.001524 0.003059 0.000194 
Switzerland -0.194850 0.395812 -0.098299 -0.151571 -0.026250 -0.164008 0.021942 0.363670 0.443209 -0.672732 -0.190157 -0.418079 -0.002809 -0.013240 -0.199398 -0.200909 -0.005180 -0.055279 -0.265189 -0.407093 0.139060 -0.395997 -0.613582 0.431985 -0.194051 -0.452896 -0.054062 0.041989 -0.037890 -0.145367 -0.238637 -0.450727 -0.187806 0.763585 -0.090636 -0.376199 0.258001 0.594166 0.095456 -0.152648 -0.808626 -0.383163 0.345622 0.462428 -0.005972 0.183398 0.067958 -0.314036 0.211782 0.501336 -0.004073 0.015940 -0.221926 -0.109489 -0.341772 -0.136870 -0.143547 -0.376012 -0.156570 -0.314346 -0.526935 0.264304 -0.216191 0.086463 -0.099276 0.225377 0.043033 0.199055 -0.249999 0.056641 0.106133 0.059785 0.100101 0.084848 -0.277116 -0.102548 0.254309 -0.627118 0.190132 0.069145 -0.057075 -0.254285 -0.337667 -0.215802 -0.372963 -0.245746 -0.034976 0.192629 -0.198099 -0.006369 0.103922 -0.306373 -0.106680 -0.108506 -0.362591 -0.073728 -0.234054 -0.230353 0.293860 -0.100285 
USA 0.316762 -0.357613 -0.067150 0.129340 0.128657 0.130641 -0.934626 -0.153155 -0.621303 1.630779 0.458909 0.439517 0.054613 -0.091646 0.188604 -0.029395 0.077400 -0.280140 -0.334693 0.301624 0.047032 -0.478327 -0.033600 0.162773 0.408841 0.368525 -0.135831 0.268293 -0.218319 0.040279 0.262682 0.280185 -0.070191 -0.471645 0.144298 0.141641 -0.036282 -0.358941 0.071949 0.210106 0.339668 0.181826 -0.417582 -0.130006 0.021111 0.535397 -0.170882 0.194468 -0.004616 -0.170124 0.045609 0.095087 -0.084025 0.046796 0.382236 0.396551 0.172673 0.173672 -0.278037 0.262597 -0.014464 -0.370254 -0.042726 -0.218304 0.288552 -0.453819 -0.077943 0.033278 0.057013 0.093245 0.282648 -0.168509 -0.103206 0.132890 0.084486 0.102980 -0.034668 0.315354 0.009506 -0.148686 -0.113125 0.173312 -0.092947 -0.199079 -0.003182 -0.019977 -0.397156 -0.195995 -0.192775 0.109404 0.287678 -0.113806 0.334289 0.171836 0.462632 -0.191532 0.514706 -0.425663 0.443606 -0.164764 
Iran -0.111441 0.306614 0.279685 -0.018354 0.028578 -0.352219 0.022933 -0.729308 -0.288200 0.089775 0.109766 0.174584 0.112079 -0.106234 0.114619 0.161929 0.294454 -0.548863 -0.067042 0.172469 -0.178616 0.220977 0.304046 -0.184478 -0.172110 0.224452 0.108466 -0.182433 -0.047170 0.137826 0.005826 -0.007055 0.156839 -0.273110 -0.210828 0.160170 -0.430818 -0.581503 0.279531 -0.309413 0.619953 0.164927 -0.095076 -0.252100 -0.161745 -0.322768 -0.027253 0.007073 -0.044341 -0.531267 -0.330671 0.026603 0.207591 -0.177602 0.096519 0.036623 -0.139958 -0.154278 0.442342 0.194944 0.416551 0.044781 0.401181 0.227341 0.084910 0.243842 0.066845 0.063423 0.055842 -0.167608 -0.015500 0.231989 -0.177459 -0.118318 0.242350 -0.076897 0.126427 0.108704 -0.020501 0.005150 -0.005707 0.047772 -0.134179 0.171388 0.158804 -0.093878 -0.005853 -0.274393 -0.021048 -0.075660 -0.091593 -0.058071 -0.004814 0.246062 0.167619 0.020263 -0.132559 -0.092769 -0.246519 0.116875 
nuclear 1.311370 -1.834210 0.801465 0.066576 0.073450 -0.381451 -1.376811 -0.308113 -1.100014 1.767707 1.386256 0.808201 -0.279140 -0.093661 0.259897 0.155846 0.763224 -0.021137 -0.629959 0.580748 -0.633541 -0.358428 0.306450 0.037810 0.442202 -0.658235 -0.973236 0.010199 -0.568110 0.270410 0.330750 0.490941 -0.833021 0.599326 -0.004628 -0.037529 0.575388 0.281630 -0.288196 -0.191103 0.024764 0.428443 -0.910988 0.077813 -0.147782 1.096199 -0.164501 0.493315 -0.018465 0.100074 -0.406219 -0.123557 0.376578 0.246215 0.105245 0.069213 0.032518 0.123457 -0.836894 0.008200 -0.930044 -0.394759 -0.339505 -0.792308 0.182445 -0.087622 -0.434104 -0.151616 0.570180 0.434368 -0.337995 0.119452 0.316440 0.068647 -0.060426 0.062404 -0.005286 0.572724 -0.282423 -0.359368 0.089475 0.178447 0.478238 -0.446843 0.056532 -0.084645 -0.219011 0.462982 -0.027927 0.079498 0.210480 0.362932 0.106964 -0.841596 0.550124 0.496654 0.310631 0.009463 0.407852 0.036840 
chocolate -0.122363 0.790969 -0.019672 -0.309278 -0.054845 -0.090674 0.258056 0.546885 0.605100 -0.857218 -0.187432 -0.464018 0.034501 -0.295714 -0.105734 -0.005113 0.203401 -0.179558 -0.414750 -0.376667 -0.148843 -0.270304 -0.545466 0.517159 -0.326396 -0.840055 -0.217995 -0.138186 -0.280757 -0.082676 -0.264889 -0.527554 -0.549981 1.383862 -0.364196 -0.741377 0.280586 0.646261 0.335904 -0.600857 -0.877849 -0.340145 0.221768 0.741522 0.218637 0.413324 0.110801 -0.460151 0.407391 0.387834 0.019991 -0.229457 -0.346087 -0.420309 -0.443681 -0.191513 -0.110154 -0.291291 -0.023607 -0.324710 -0.304061 0.312026 0.048126 0.149051 0.078767 0.056508 0.107790 0.444140 -0.566084 -0.225197 0.052831 0.070735 -0.004958 0.165246 -0.301941 -0.110290 0.253703 -0.879141 0.231385 0.033816 0.004192 -0.046125 -0.499998 -0.371701 -0.332979 -0.281275 -0.126510 0.200699 -0.331801 0.137571 0.208067 -0.499308 -0.010081 -0.107683 -0.128502 -0.072872 -0.385524 -0.354738 0.383093 -0.087877 
cheese -0.005226 0.623461 0.079675 -0.176452 0.049595 0.033840 0.223535 0.419694 0.555357 -0.742484 -0.336518 -0.479259 0.103342 -0.434510 -0.022158 -0.021292 0.351855 -0.293306 -0.531483 -0.239791 -0.216615 -0.433894 -0.591869 0.434903 -0.243029 -0.827247 -0.358627 -0.035500 -0.261839 0.003119 -0.238948 -0.454464 -0.540116 1.346982 -0.245373 -0.630722 0.320254 0.762639 0.217823 -0.404458 -0.874548 -0.360229 0.188639 0.704075 0.145198 0.306297 0.040787 -0.349536 0.369151 0.477527 0.043936 -0.170094 -0.328872 -0.398577 -0.466105 -0.215311 -0.099177 -0.292218 -0.098949 -0.321510 -0.271646 0.286725 0.072819 0.116946 0.054615 0.068448 0.213925 0.490184 -0.447114 -0.135043 0.104917 0.037976 -0.059318 0.199909 -0.401336 -0.063074 0.268398 -0.923759 0.301286 -0.059470 -0.065783 -0.082324 -0.460292 -0.477398 -0.480132 -0.327233 -0.194392 0.260203 -0.302787 0.184174 0.163036 -0.431992 0.031799 -0.104212 -0.003410 -0.031355 -0.464427 -0.293420 0.467285 0.001547 
mountains 0.066218 0.497517 0.064560 -0.024832 0.070373 -0.156428 0.150797 0.372284 0.468541 -0.884901 -0.321283 -0.587781 0.033317 -0.383287 0.000244 0.041901 0.184867 -0.257567 -0.448850 -0.387486 -0.299701 -0.466436 -0.723011 0.479454 -0.240875 -0.830170 -0.368059 -0.006288 -0.378208 -0.014616 -0.148026 -0.288689 -0.540161 1.322847 -0.292284 -0.592786 0.340739 0.676510 0.332863 -0.536984 -0.875236 -0.359649 0.138336 0.723985 0.158969 0.389442 -0.039753 -0.466306 0.420440 0.376962 -0.029263 -0.134195 -0.361882 -0.453550 -0.453590 -0.130346 -0.117058 -0.294319 -0.146501 -0.344525 -0.500516 0.357563 -0.005907 0.126579 0.098752 0.063259 0.090688 0.448665 -0.496598 -0.074590 0.206706 0.076600 0.014449 0.181864 -0.386143 -0.120352 0.334311 -0.860123 0.273356 -0.019382 -0.054391 -0.199964 -0.437904 -0.420987 -0.454115 -0.340254 -0.104776 0.298188 -0.359870 0.160500 0.256365 -0.482639 -0.036758 -0.287786 -0.184338 -0.060733 -0.304621 -0.298306 0.381326 -0.090106 
FIFA 0.068375 0.490361 0.147907 -0.333782 -0.013844 -0.230711 -0.080576 0.422491 0.557676 -0.636641 -0.264523 -0.477006 0.056325 -0.382221 -0.112067 0.045306 0.199451 -0.301941 -0.487034 -0.334007 -0.245393 -0.447023 -0.670531 0.612840 -0.264609 -0.844117 -0.271396 -0.030145 -0.335853 -0.137577 -0.227226 -0.508134 -0.489959 1.317781 -0.348288 -0.690353 0.231673 0.620296 0.358458 -0.527246 -0.890938 -0.367995 0.190614 0.788004 0.172386 0.437946 0.050869 -0.403730 0.394683 0.438705 0.123133 -0.172212 -0.415587 -0.337674 -0.411830 -0.132050 -0.143372 -0.208375 -0.132647 -0.316560 -0.409141 0.287196 -0.055134 0.133553 0.103708 0.004680 0.128397 0.481479 -0.498994 -0.106180 0.204112 0.020401 0.003065 0.210753 -0.332551 -0.135981 0.348783 -0.897211 0.279336 0.012968 -0.051748 -0.131745 -0.529232 -0.409935 -0.419890 -0.331773 -0.187001 0.180126 -0.415121 0.115303 0.278164 -0.522047 0.013308 -0.165083 -0.140621 -0.102794 -0.263638 -0.507357 0.537754 -0.065041 
aggressive 1.275563 -1.702822 1.067335 -0.595744 0.077732 -0.188081 -0.657156 -0.125703 -0.668308 1.265278 1.345695 0.723354 -0.229677 -0.287048 0.407891 0.268124 0.825735 0.087431 -0.419600 0.553294 -0.437931 -0.119042 0.462594 -0.141330 0.219157 -0.543113 -0.574136 -0.031031 -0.251728 0.165773 0.214844 0.198842 -0.584710 0.246362 -0.133224 0.146819 0.328941 -0.032132 -0.155156 -0.283893 0.022520 0.294807 -0.440827 -0.016434 -0.142143 0.803862 -0.011355 0.299257 0.035729 0.155940 -0.139917 -0.196397 0.049129 0.241438 0.119976 0.012563 0.150604 0.028492 -0.455573 -0.054086 -0.723513 -0.265613 -0.343709 -0.407494 -0.134137 0.238617 0.109310 -0.117168 0.730648 0.594739 0.121652 -0.026424 0.312556 0.010886 -0.076629 -0.121206 0.038366 0.287753 -0.276856 -0.171799 0.053000 0.079584 0.241613 -0.186758 0.124250 0.171100 -0.153371 0.231154 0.221144 -0.090495 0.086088 0.471289 -0.002432 -0.399009 0.288098 0.478724 0.038868 0.075267 0.387741 0.032796 
military 1.448567 -1.908286 0.746574 -0.484025 0.050513 -0.243066 -0.839220 -0.037155 -0.820257 1.254726 1.206853 0.639708 -0.358592 -0.083207 0.313084 0.208750 0.860027 -0.038845 -0.530932 0.569707 -0.581674 -0.179322 0.496372 -0.095106 0.231592 -0.564648 -0.601395 0.007029 -0.275731 0.168937 0.260401 0.247139 -0.530410 0.240941 -0.173886 0.180253 0.339365 -0.053152 -0.124529 -0.411108 -0.028259 0.264716 -0.398194 0.023934 -0.097954 0.890843 -0.026331 0.210963 0.069174 0.142789 -0.182963 -0.220185 0.047478 0.188992 0.075381 0.012244 0.136451 0.103880 -0.426162 -0.080781 -0.722387 -0.204607 -0.326285 -0.342388 -0.115774 0.145400 0.089759 -0.086538 0.512872 0.498489 0.119189 -0.089048 0.322761 0.042176 -0.095489 -0.137746 -0.021343 0.167006 -0.209357 -0.082695 0.132815 0.083204 0.206056 -0.223093 0.120773 0.138946 -0.097653 0.321304 0.071052 0.001722 0.121185 0.345075 0.013287 -0.346485 0.134779 0.303479 0.089652 0.244258 0.194262 -0.065984 
history -0.978967 0.817419 0.060920 0.132349 -0.065693 0.095942 -0.231427 -0.246067 -0.190578 0.533517 -0.447839 0.078604 0.595698 -0.558121 0.061261 0.285490 -0.270621 -0.614016 0.005141 0.129512 0.044320 0.115384 0.012774 0.146421 0.082101 0.601397 0.032016 -0.187755 -0.659359 0.165829 -0.023964 0.242601 0.154429 -0.382411 -0.077464 -0.216438 -0.653251 -0.753399 0.576023 0.025955 0.916491 0.297115 -0.554516 -0.074555 0.119912 0.004840 -0.158145 -0.036358 0.186442 -0.896194 -0.271074 -0.034073 0.101815 -0.699915 0.191755 0.217048 -0.114367 0.114411 0.453533 0.442660 0.631346 0.026133 0.706248 0.052488 0.610412 -0.271214 -0.213076 0.350388 -0.171667 -0.458939 -0.016923 0.384698 -0.347855 -0.020206 0.255512 0.031530 0.221810 0.386498 -0.142905 -0.149769 -0.311503 0.016687 -0.327878 0.141254 0.117771 -0.206536 -0.238505 -0.522446 0.000912 -0.123489 0.097362 -0.279966 0.131819 0.193996 0.317672 -0.094420 0.113899 -0.160187 -0.283723 -0.269036 
culture -0.683104 0.893115 0.389469 0.006966 -0.042237 -0.031465 -0.247144 -0.349531 -0.501067 0.537417 -0.351857 0.116124 0.477705 -0.340329 0.011914 0.193679 -0.165765 -0.782498 -0.084872 0.093992 -0.037667 0.126913 0.079469 0.059531 0.034617 0.561862 0.053789 -0.124803 -0.507413 0.205845 0.003839 0.246164 0.301075 -0.444120 -0.049937 -0.129943 -0.751994 -0.816052 0.605623 -0.052321 0.923542 0.210256 -0.539028 -0.048651 0.040194 -0.258067 -0.202002 0.002491 0.088435 -0.776585 -0.212225 0.095759 0.142756 -0.531324 0.110503 0.226614 -0.188867 0.184211 0.442960 0.411491 0.677502 0.090975 0.797353 0.095737 0.636706 -0.300396 -0.037904 0.525043 -0.436004 -0.576975 -0.043893 0.287092 -0.369428 0.049226 0.142146 0.001036 0.135220 0.022587 0.024677 -0.141019 -0.261123 0.188058 -0.210015 0.087668 0.206076 -0.042473 -0.156243 -0.304706 -0.068648 -0.042924 0.072857 -0.242136 0.088278 0.128190 0.390188 -0.077459 -0.167463 -0.349809 -0.205376 0.053300 
art -0.934816 1.125600 0.488793 -0.058625 -0.034445 0.082281 0.025825 -0.183721 -0.461103 0.298075 -0.094598 0.128388 0.525338 -0.424863 0.072329 0.149586 -0.163442 -0.728773 -0.172219 0.046776 0.067964 0.090556 0.044186 0.088482 0.013688 0.505045 0.043950 -0.168951 -0.474222 0.218988 -0.033820 0.226937 0.175792 -0.432094 -0.057203 -0.128186 -0.685263 -0.806175 0.577414 -0.028204 0.933731 0.280007 -0.551546 -0.111256 0.077457 -0.094223 -0.160863 -0.020547 0.164255 -0.803559 -0.280685 0.010809 0.116866 -0.650650 0.134427 0.203012 -0.129141 0.127103 0.478207 0.436658 0.661244 0.091571 0.810492 0.064922 0.609360 -0.221361 -0.033790 0.490419 -0.309800 -0.535352 0.002580 0.328476 -0.339626 0.018633 0.167233 0.012901 0.229397 0.113479 -0.025187 -0.150316 -0.292827 0.098753 -0.255612 0.045024 0.125271 -0.157458 -0.212102 -0.322980 -0.091155 -0.071126 0.086351 -0.259166 0.097016 0.066814 0.376411 -0.056370 -0.088499 -0.314938 -0.228779 0.031096 
music -0.980279 0.542147 0.344642 0.268652 0.032505 -0.069214 -0.311571 -0.450545 -0.245934 0.342318 -0.165098 0.075721 0.548151 -0.400398 -0.010938 0.126713 -0.121681 -0.624065 -0.068451 0.186398 0.121513 0.046981 -0.058011 0.137993 0.101932 0.501734 -0.013943 -0.151093 -0.512091 0.132009 -0.103709 0.179989 0.248793 -0.452244 -0.032126 -0.234591 -0.692538 -0.787059 0.571181 0.059361 0.933534 0.283098 -0.527995 -0.131493 0.046354 -0.015008 -0.075104 0.048148 0.230762 -0.840746 -0.302297 -0.043592 0.037059 -0.798786 0.150899 0.146068 -0.240292 0.284649 0.554934 0.499930 0.717489 0.126613 0.767640 0.126611 0.580788 -0.269255 0.013594 0.504609 -0.329434 -0.566396 -0.049651 0.248994 -0.362874 0.070425 0.201781 0.120729 0.258438 0.143083 0.049215 -0.088054 -0.374360 -0.015719 -0.318063 0.088562 0.070775 -0.231810 -0.277212 -0.414700 -0.116252 -0.143537 0.027733 -0.249655 0.131853 0.223675 0.214411 -0.178437 0.106767 -0.076596 -0.394068 -0.274577 
development -0.873828 0.892398 0.201638 -0.060689 -0.093327 0.123022 -0.133362 -0.090596 -0.288474 0.549968 -0.343753 0.092169 0.588030 -0.499829 -0.003064 0.195691 -0.134344 -0.810866 -0.123770 0.086028 0.042810 0.147177 0.072362 0.133777 -0.056159 0.492064 0.041171 -0.249755 -0.624772 0.152004 -0.111685 0.115712 0.192777 -0.350233 -0.147128 -0.246878 -0.709812 -0.759497 0.614132 -0.053652 0.804567 0.247970 -0.508256 0.030519 0.066417 -0.009135 -0.098390 -0.020517 0.165061 -0.756912 -0.321205 0.026773 0.169311 -0.644735 0.077953 0.145581 -0.184013 0.100749 0.495200 0.394803 0.591311 0.130021 0.814161 0.076395 0.587253 -0.196463 -0.121063 0.459728 -0.261953 -0.525591 -0.116465 0.419835 -0.354687 -0.005946 0.183958 0.047943 0.251227 0.206965 -0.054942 -0.146797 -0.315027 0.011527 -0.331273 0.075077 0.096192 -0.210047 -0.198658 -0.377293 -0.008338 -0.081837 0.079192 -0.267959 0.129328 0.105478 0.369362 -0.013575 -0.067097 -0.262224 -0.293185 -0.030831 
science -0.897108 1.069211 0.183670 0.260085 -0.005957 0.044760 -0.196660 -0.338177 -0.136600 0.379148 -0.296316 0.076088 0.594873 -0.471194 0.035079 0.187907 0.021028 -0.617620 -0.022649 0.249452 0.054725 0.170120 0.071142 0.044870 -0.001170 0.537975 0.074956 -0.204225 -0.494296 0.165704 -0.144103 0.110305 0.277608 -0.418449 -0.098267 -0.269951 -0.754856 -0.801295 0.600575 0.003131 0.868281 0.246500 -0.475137 -0.072485 0.049043 -0.118404 0.000076 0.087137 0.154413 -0.741595 -0.368163 0.023545 0.146505 -0.642493 0.098163 0.078510 -0.229237 0.132479 0.585992 0.447368 0.631508 0.121047 0.828099 0.109414 0.504342 -0.109213 0.087507 0.491508 -0.253049 -0.541281 -0.102115 0.341082 -0.371886 0.022240 0.181437 0.090192 0.236731 0.101704 0.042815 -0.116723 -0.357094 0.023374 -0.395947 0.027703 0.034275 -0.312494 -0.289753 -0.387972 -0.058762 -0.093183 -0.007604 -0.232163 0.189720 0.327622 0.368205 -0.133214 -0.048100 -0.203950 -0.384728 -0.122288 
UK 1.225358 -1.209400 -0.276280 0.360098 0.311422 0.359113 -1.021261 0.100430 -0.796461 2.127991 1.294229 0.629702 -0.317812 0.046203 0.433897 -0.230525 0.175512 0.445967 -0.385009 0.205637 0.159615 -0.916027 -0.225095 0.028199 0.660435 0.058962 -0.285943 0.648092 0.181045 -0.040120 0.503687 0.314415 -0.364185 -0.259590 0.385782 0.426556 0.707546 0.262792 -0.537056 0.428963 -0.204926 0.100807 -0.342458 -0.163237 -0.023654 1.078669 -0.134599 0.380240 -0.128524 0.407287 0.113601 0.127465 -0.157139 0.518626 0.524824 0.494256 0.449041 -0.087787 -1.042306 0.089651 -0.767459 -0.684020 -0.743052 -0.634986 0.115291 -0.501230 -0.104928 -0.219158 0.484029 0.649501 0.433724 -0.438128 0.288538 0.181623 -0.067745 0.002187 -0.114963 0.394717 -0.098784 -0.213506 0.107117 0.340362 0.253795 -0.497776 -0.073301 0.242455 -0.505331 0.196079 0.032423 0.140223 0.360209 0.281240 0.338924 -0.039698 0.655737 0.076623 0.667990 -0.635610 1.211556 0.028018 
Syria 0.873658 -0.843164 0.363458 0.022298 0.222556 -0.437116 0.320528 -0.778720 -0.113074 -0.593548 0.351607 0.001678 -0.289919 0.030435 0.266717 0.207796 0.226466 0.294180 0.390704 0.085561 -0.420345 0.337842 0.088778 -0.546759 -0.261204 -0.318194 -0.057502 -0.040607 0.243998 0.066269 0.172414 0.238817 -0.028547 0.085827 -0.176781 0.496578 0.091156 -0.118070 -0.099062 -0.343168 0.090352 -0.002829 0.332663 -0.346597 -0.269263 -0.244833 0.009462 -0.151267 -0.081804 -0.132371 -0.372544 0.006083 0.107995 0.006286 -0.078796 -0.193800 -0.123682 -0.428776 0.115231 -0.209523 -0.516206 0.196811 -0.304511 0.208665 -0.469021 0.710942 0.166540 -0.382151 0.642410 0.524961 0.295993 0.152937 0.349549 -0.285613 0.030308 -0.251785 0.186245 0.268292 -0.289041 0.114882 0.178096 -0.308566 0.322205 0.471322 0.285269 0.166875 0.440342 0.095542 0.436979 -0.238658 -0.334436 0.585960 -0.256823 -0.237132 -0.324879 0.457594 -0.102490 0.481839 -0.369733 0.085555 
negotiations 0.027345 0.013252 -0.503414 0.291017 0.062045 0.167092 0.416474 -0.268553 0.004704 -0.569795 -0.019307 -0.024189 -0.255585 0.801382 -0.327437 -0.599470 -0.647243 0.107268 0.273110 -0.436701 0.917012 -0.025776 -0.001501 0.076965 0.147405 0.876952 0.640089 0.109954 0.457127 -0.087676 -0.041033 -0.099193 0.501044 -1.146345 0.420438 0.523662 0.028451 -0.136095 -0.304832 0.577690 -0.145502 -0.168552 0.513132 -0.441803 -0.183734 -0.292538 -0.041581 -0.051108 -0.182874 0.256851 -0.031492 0.252025 0.062010 0.367250 0.133001 0.089083 0.164391 -0.562993 -0.030478 -0.034437 -0.419582 0.040595 -0.564148 0.069763 -0.385299 0.207492 0.071277 -0.402200 0.451277 0.418667 0.052895 -0.045666 0.108581 -0.144583 0.202218 -0.112549 0.045321 0.327840 -0.030882 0.129510 -0.074135 -0.261901 0.266859 0.284463 -0.168164 0.074751 0.170149 -0.126740 0.304538 -0.186881 -0.028007 0.225700 -0.277543 -0.123948 -0.297056 0.152173 0.274414 0.155009 -0.062185 0.051401 
partners -0.146106 -0.140769 -0.496183 0.010595 -0.130351 0.076596 0.256539 0.059907 0.004538 -0.643371 -0.042956 -0.004539 -0.257348 0.867232 -0.461158 -0.611081 -0.616746 0.088261 0.130130 -0.435031 1.009973 -0.084359 0.128659 0.181029 0.092230 0.805015 0.597548 0.013537 0.473436 -0.085251 -0.112432 -0.224506 0.525009 -1.038551 0.356802 0.551551 0.024363 -0.091630 -0.377800 0.496275 -0.151418 -0.122905 0.450497 -0.374914 -0.247253 -0.155228 0.031907 -0.034940 -0.218488 0.285445 -0.110892 0.211354 0.182929 0.387325 0.060273 0.004555 0.097905 -0.569191 -0.009048 -0.085561 -0.354417 0.066691 -0.506806 0.035966 -0.393857 0.415611 -0.039284 -0.395188 0.384172 0.356783 -0.034677 0.051598 0.241776 -0.211515 0.164965 -0.193012 0.054661 0.232183 -0.106495 0.234740 0.075593 -0.262876 0.203197 0.288013 -0.068011 0.003175 0.280297 -0.032593 0.220456 -0.318341 -0.161027 0.184417 -0.370217 -0.137147 -0.609018 0.076889 0.109443 0.218891 -0.204221 0.124313 
friendly 0.117164 0.002959 -0.593604 0.230433 0.051335 0.226260 0.498483 -0.130272 0.128000 -0.648298 0.005924 -0.034737 -0.300811 0.818099 -0.318559 -0.620129 -0.504714 0.110685 0.217120 -0.380020 0.849749 -0.013709 0.096585 0.024296 0.144033 0.815728 0.638086 0.129643 0.532963 -0.079396 -0.040998 -0.167895 0.503816 -1.114898 0.429321 0.531153 0.055421 -0.074840 -0.376958 0.576311 -0.232564 -0.188696 0.531909 -0.410348 -0.192083 -0.268403 -0.013653 0.053675 -0.211912 0.366565 -0.033980 0.232860 0.085296 0.475360 0.119681 0.049394 0.202377 -0.624593 -0.052599 -0.056503 -0.427012 0.001163 -0.552152 0.072916 -0.472890 0.322320 0.217298 -0.387659 0.493845 0.471306 0.072548 -0.102902 0.092142 -0.132335 0.161099 -0.146441 0.013693 0.142742 0.052621 0.145216 -0.053746 -0.244032 0.200075 0.216635 -0.237947 0.072306 0.132600 -0.096423 0.301656 -0.152109 -0.033755 0.224266 -0.287546 -0.027446 -0.260065 0.170646 0.160636 0.133372 0.019338 0.083139 
deal 0.006760 -0.078014 -0.514302 0.321125 0.016911 0.036439 0.365006 -0.266448 -0.095910 -0.480004 -0.242894 -0.131904 -0.181974 0.751607 -0.422284 -0.610474 -0.677695 -0.065261 0.216464 -0.523978 0.834011 -0.120302 -0.143824 0.079145 -0.056070 0.712523 0.547866 0.089342 0.403318 -0.105213 -0.042419 -0.107494 0.510213 -0.903430 0.325154 0.585948 0.056068 -0.000091 -0.308465 0.496082 -0.263339 -0.252335 0.571394 -0.321895 -0.286551 -0.313791 -0.058652 -0.170148 -0.247818 0.280948 -0.098710 0.381283 0.153098 0.315686 0.011545 0.048435 0.026644 -0.590509 -0.027025 -0.125270 -0.373104 0.141948 -0.466898 0.122804 -0.352924 0.265557 -0.111154 -0.416310 0.335354 0.355031 0.066221 0.075107 0.170979 -0.232001 0.126479 -0.112071 0.059575 0.396198 -0.108865 0.144590 -0.002266 -0.343140 0.275932 0.353094 -0.122166 -0.026392 0.329184 -0.032925 0.219094 -0.162275 -0.141777 0.160464 -0.225957 -0.188992 -0.430029 0.085725 0.279793 0.152937 -0.174837 0.239329 
responsible -0.179065 -0.187480 -0.455394 0.092572 -0.037804 -0.018601 0.324232 -0.174691 0.148196 -0.824929 -0.225927 -0.081498 -0.229281 0.815516 -0.502123 -0.523153 -0.595864 0.088951 0.202128 -0.357624 0.934881 -0.043627 0.213545 0.171827 0.085595 0.847314 0.623464 -0.018301 0.457710 -0.079371 -0.102450 -0.218200 0.477055 -1.058752 0.332693 0.595144 0.072486 -0.061147 -0.416167 0.488491 -0.179566 -0.113488 0.470269 -0.370768 -0.238795 -0.199395 0.063964 0.009167 -0.225328 0.347384 0.046295 0.185631 0.092656 0.457970 0.057780 -0.034152 0.129199 -0.318125 0.004615 -0.114220 -0.262248 0.046285 -0.541432 0.072200 -0.481785 0.372125 0.054477 -0.442081 0.440658 0.404816 0.014824 -0.063579 0.181644 -0.184824 0.143426 -0.098470 -0.061935 0.272850 -0.076550 0.224397 0.093864 -0.222493 0.256323 0.277585 -0.077415 0.064335 0.289424 -0.062531 0.266744 -0.289565 -0.232243 0.250223 -0.305441 -0.034251 -0.566170 0.022624 0.202231 0.354329 -0.289008 0.148771 
alliance -0.201235 0.014592 -0.476132 0.104057 -0.065640 0.010586 0.417727 -0.138789 -0.033909 -0.722854 0.175255 0.041761 -0.291176 0.849885 -0.376839 -0.577556 -0.563134 0.185937 0.228510 -0.435955 1.019494 -0.011315 0.121855 0.090067 0.077060 0.840542 0.695896 0.026719 0.504500 -0.093709 -0.092948 -0.248495 0.504124 -1.126869 0.339357 0.583680 0.036259 -0.177450 -0.318586 0.440449 -0.198966 -0.167857 0.563678 -0.411684 -0.215460 -0.193005 0.069837 -0.092323 -0.178746 0.358611 0.002650 0.191050 0.046942 0.421477 0.093779 0.031884 0.121874 -0.502333 -0.023253 -0.096473 -0.416911 0.054837 -0.641705 0.073155 -0.439632 0.285430 0.035536 -0.420204 0.357596 0.379868 0.006506 -0.079125 0.222439 -0.160283 0.189553 -0.153474 0.004275 0.196928 -0.052799 0.255131 0.037061 -0.212771 0.206735 0.290255 -0.070427 0.107575 0.237906 -0.088217 0.282547 -0.283409 -0.109805 0.224672 -0.347643 -0.096602 -0.525978 0.111045 0.228686 0.165495 -0.099084 0.052648 
peace -0.275170 0.239428 -0.478470 0.112914 -0.036783 0.037608 0.338791 -0.052583 -0.046038 -0.563628 0.070870 -0.003852 -0.258381 0.861475 -0.370587 -0.602483 -0.468166 0.098627 0.154535 -0.394956 0.886060 -0.051035 0.092344 0.063754 0.114449 0.809312 0.646171 0.116711 0.572067 -0.064947 -0.073319 -0.201912 0.522792 -1.122103 0.394857 0.590995 0.049022 -0.113573 -0.358943 0.524228 -0.177489 -0.158699 0.518411 -0.468281 -0.269926 -0.256075 0.048978 -0.005928 -0.202792 0.401956 -0.038745 0.248853 0.101693 0.546758 0.082011 0.009212 0.080072 -0.524880 -0.055219 -0.095276 -0.524427 0.053418 -0.604980 0.077683 -0.533157 0.452249 0.171046 -0.423244 0.438587 0.450345 0.037579 -0.089762 0.187728 -0.149792 0.099357 -0.145853 -0.022742 0.049186 0.069005 0.231432 0.016854 -0.282388 0.148785 0.185269 -0.203938 0.050388 0.190816 -0.041315 0.203391 -0.191853 -0.124098 0.198928 -0.317077 0.023644 -0.527593 -0.008397 0.165213 0.319933 -0.150338 0.074250 
seeking 0.244137 -0.065235 0.440104 2.089162 -0.059144 -1.212689 -1.915193 -1.521011 -0.947892 -0.994222 1.128529 0.372846 -0.635066 1.556096 -1.472733 -0.920109 -0.037652 -0.840683 -0.896102 0.069146 -0.151265 -0.407990 0.210690 1.279602 0.953682 -0.509078 -1.405431 -0.294173 -1.193549 0.483675 0.326529 0.921303 -0.824501 0.183806 0.663891 -0.370122 0.717968 0.829634 -0.603140 0.649564 -0.094793 0.309844 -1.470006 0.345275 -0.393402 0.128661 -0.908176 1.011090 -0.547771 0.063934 -0.938214 0.683006 1.610043 0.771240 0.063764 0.311931 -0.553636 -0.248930 -1.693483 0.276988 -1.184418 -0.613313 -0.300394 -1.632604 0.843706 -0.570763 -1.669214 -0.243015 0.621280 0.081594 -1.824089 0.943185 0.028727 0.182827 0.290777 0.395714 0.407254 1.458278 -0.245203 -1.079429 -0.261777 0.295987 1.225098 -1.021788 -0.363201 -0.956819 -0.511578 0.798441 -0.570720 0.442011 0.616239 0.222812 0.261162 -2.486923 1.744254 0.928149 1.155339 -0.643125 0.103980 0.715706 
neutral 0.020264 -0.287670 0.551163 2.032676 -0.104458 -1.365386 -1.895303 -1.405609 -1.086826 -0.633874 1.092080 0.344236 -0.670457 1.745396 -1.503316 -0.945234 -0.211624 -0.935060 -0.799282 -0.092314 -0.351202 -0.361372 0.112286 1.205376 0.917576 -0.488885 -1.349341 -0.233088 -1.123150 0.373705 0.340170 0.994919 -0.666963 0.106769 0.647365 -0.442176 0.640381 0.762467 -0.523326 0.602290 -0.073213 0.322268 -1.503044 0.343123 -0.426238 0.054107 -0.887290 1.051749 -0.559942 0.052679 -0.913521 0.732826 1.572492 0.902386 0.069092 0.346890 -0.483566 -0.156856 -1.638135 0.240900 -1.375919 -0.520610 -0.333135 -1.556220 0.758892 -0.512444 -1.516336 -0.236334 0.597809 0.138232 -1.765871 0.841059 0.004464 0.161316 0.334614 0.378444 0.312299 1.419977 -0.156286 -1.031248 -0.290515 0.215902 1.333798 -0.964388 -0.410328 -0.812174 -0.429771 0.904893 -0.647303 0.403507 0.746735 0.102886 0.097015 -2.565443 1.528356 0.848763 1.088633 -0.718416 0.059787 0.732881 
diplomatic 0.165599 -0.205315 0.552856 1.915965 -0.037507 -1.285162 -1.890388 -1.388676 -1.047894 -0.719154 0.942392 0.272286 -0.685100 1.708521 -1.501016 -0.909537 -0.242416 -1.013235 -0.850917 -0.151633 -0.284027 -0.436446 0.193772 1.270850 0.969270 -0.381487 -1.333601 -0.229310 -1.197297 0.455242 0.388304 1.026550 -0.723802 -0.030589 0.656223 -0.333003 0.706151 0.731960 -0.541119 0.556504 -0.128575 0.315039 -1.576861 0.409951 -0.438679 0.161404 -0.972526 1.059932 -0.574636 0.094054 -0.944211 0.791913 1.592899 0.948117 0.083921 0.422552 -0.399550 -0.209738 -1.732581 0.211418 -1.444304 -0.534990 -0.337173 -1.590636 0.776220 -0.464924 -1.508335 -0.217589 0.639404 0.229422 -1.704934 0.880861 0.004717 0.176202 0.281887 0.333179 0.325677 1.414849 -0.152955 -1.063296 -0.250007 0.206059 1.355502 -1.057419 -0.483249 -0.864401 -0.421948 0.968722 -0.701589 0.424454 0.796342 0.057062 0.077400 -2.642646 1.531863 0.812885 1.072424 -0.631705 0.056554 0.827398 
imposing -0.299742 0.031935 -0.212164 -1.021625 -0.069734 0.593778 1.040239 0.737464 0.500212 0.140571 -1.137295 -0.299586 0.232085 -0.888698 0.939358 0.696602 0.501804 0.751859 0.551312 0.508357 -0.698452 0.572967 0.236526 -1.164171 -0.667680 -0.416461 0.407809 0.114393 0.999102 -0.220478 -0.181143 -0.346428 0.286298 0.564147 -0.390867 0.073971 -0.176758 0.034894 0.116212 -0.482467 -0.056720 -0.161471 1.041819 -0.275040 0.444636 -0.730845 0.508290 -0.652915 0.270160 0.010831 1.062789 -0.643843 -1.121610 -0.474775 -0.226614 -0.506076 0.599194 0.600340 1.268743 -0.312101 1.419903 0.362288 0.413675 1.180469 -0.915783 0.377859 1.441051 -0.053904 -0.315499 -0.071121 1.278690 -0.974393 -0.003400 -0.188420 -0.376332 -0.204562 -0.911956 -1.014742 -0.028251 0.695950 0.293237 0.045555 -0.434571 1.089491 0.696396 1.346750 0.750229 -0.435696 0.771368 0.007916 -0.803036 0.265508 -0.128365 2.022095 -1.200036 -0.571179 -1.186307 1.098336 -0.426020 -0.556971 
dangerous -0.232530 0.044869 -0.471727 -1.129782 -0.115587 0.827980 0.964170 0.937252 0.730350 0.302378 -1.022708 -0.270015 0.256282 -0.916697 0.929770 0.687426 0.608587 0.819413 0.614609 0.514171 -0.587962 0.694013 0.337088 -1.195584 -0.704957 -0.468154 0.406275 0.027408 0.933375 -0.251789 -0.244028 -0.445202 0.212178 0.518852 -0.504327 -0.031599 -0.134908 0.035111 0.155610 -0.588715 -0.227762 -0.194146 1.109229 -0.140778 0.464769 -0.574892 0.571200 -0.648318 0.213757 -0.003963 0.865437 -0.562826 -0.949765 -0.450884 -0.215396 -0.510952 0.575448 0.435727 1.304359 -0.343958 1.289529 0.368697 0.488866 1.159109 -0.948901 0.509500 1.319765 -0.126394 -0.164076 -0.019596 1.207875 -0.771349 0.001739 -0.275740 -0.315435 -0.227050 -0.856165 -0.726966 -0.161860 0.624994 0.218040 -0.090707 -0.523019 1.222038 0.739179 1.256449 0.766434 -0.518456 0.822774 0.066843 -0.739755 0.227429 -0.026933 2.104321 -1.078545 -0.560707 -1.135533 1.200842 -0.655431 -0.586884 
threat -0.429938 0.171865 -0.364193 -1.278168 -0.073652 0.860470 1.215129 0.937985 0.741719 0.259638 -1.113219 -0.331298 0.365530 -1.035141 1.009753 0.747595 0.328482 0.839998 0.677704 0.338349 -0.579716 0.714691 0.235856 -1.200780 -0.753984 -0.404476 0.524056 0.040746 1.001728 -0.312197 -0.244595 -0.446249 0.141717 0.586327 -0.491756 -0.094841 -0.084719 0.086088 0.118936 -0.551711 -0.133585 -0.091463 1.022722 -0.203037 0.533213 -0.513276 0.570277 -0.657957 0.251553 -0.096339 0.963872 -0.648676 -1.019474 -0.504994 -0.148801 -0.472484 0.763448 0.467362 1.371918 -0.277227 1.373162 0.359980 0.486789 1.164047 -0.945050 0.422671 1.323060 -0.166286 -0.108224 0.003064 1.285116 -0.868115 -0.019201 -0.305206 -0.227211 -0.258955 -0.892164 -0.622887 -0.201195 0.644504 0.227875 -0.111705 -0.426367 1.244771 0.640683 1.333354 0.770572 -0.570135 0.838279 -0.000461 -0.684017 0.167206 -0.160085 2.049551 -1.141906 -0.502109 -1.090192 1.163240 -0.563229 -0.487769 
worrying -0.591282 0.292805 -0.402309 -1.051657 -0.163502 0.649464 1.171133 0.840390 0.648136 0.043961 -1.205719 -0.329977 0.253526 -0.936127 0.987141 0.759548 0.478963 0.867528 0.601314 0.398874 -0.578999 0.605262 0.325538 -1.161632 -0.720146 -0.441243 0.490805 0.061035 1.049596 -0.254972 -0.195023 -0.487634 0.261250 0.546704 -0.506752 0.102776 -0.123598 0.031099 0.115882 -0.633935 -0.106251 -0.166545 1.102681 -0.234813 0.463815 -0.774083 0.554328 -0.689605 0.210016 -0.017686 1.093273 -0.634658 -1.104625 -0.310548 -0.134865 -0.437836 0.670175 0.470563 1.270559 -0.324752 1.457751 0.290941 0.396294 1.180178 -0.911556 0.491648 1.330580 -0.135948 -0.193427 -0.005074 1.307160 -0.878663 0.031303 -0.281411 -0.260804 -0.351460 -0.870252 -0.871302 -0.134153 0.711641 0.333592 0.017681 -0.526424 1.135196 0.701785 1.369196 0.741700 -0.557243 0.777454 -0.053765 -0.714355 0.146397 -0.200834 2.119544 -1.244024 -0.613596 -1.192192 0.980327 -0.328150 -0.533884 
irresponsible -0.392287 0.276424 -0.568454 -1.230853 -0.104861 0.759713 1.221376 0.814585 0.667146 0.116315 -1.197831 -0.293645 0.140296 -0.814489 1.015748 0.726074 0.549587 0.638356 0.516930 0.454208 -0.606885 0.646876 0.420298 -1.147719 -0.651434 -0.292783 0.469375 0.011787 0.924433 -0.163199 -0.193402 -0.428744 0.104282 0.473100 -0.541451 0.053543 -0.118694 -0.047551 0.167698 -0.702745 -0.134074 -0.093733 1.061282 -0.286803 0.512775 -0.627331 0.464914 -0.744406 0.278450 -0.099157 1.015034 -0.699160 -1.055687 -0.419897 -0.157250 -0.428168 0.743721 0.472605 1.378124 -0.336427 1.502203 0.314074 0.450478 1.262125 -0.945825 0.371368 1.239424 -0.237697 -0.284711 -0.067618 1.190686 -0.872622 -0.143910 -0.264240 -0.185985 -0.185574 -1.015614 -0.674819 -0.096052 0.659819 0.319945 -0.001323 -0.452916 1.219930 0.709149 1.293204 0.834370 -0.673930 0.721694 0.146595 -0.637774 0.062962 -0.117331 2.060663 -1.067970 -0.579450 -1.038251 1.155033 -0.558639 -0.521218 
militant -0.334096 -0.025915 -0.481201 -1.051894 -0.156256 0.770761 1.105680 0.845672 0.587089 0.259358 -1.488487 -0.354213 0.374126 -1.030365 0.909741 0.784883 0.401649 0.683633 0.639931 0.473567 -0.654963 0.691222 0.321248 -1.186655 -0.789441 -0.373032 0.501307 0.044609 0.974932 -0.270689 -0.219858 -0.456124 0.332693 0.625448 -0.480864 0.042408 -0.239916 0.062297 0.105026 -0.518748 -0.058185 -0.161097 1.088953 -0.173371 0.486074 -0.691049 0.550940 -0.703416 0.230284 -0.079812 1.013473 -0.658623 -1.033046 -0.548414 -0.232458 -0.527406 0.576531 0.515730 1.362356 -0.298233 1.564627 0.370257 0.513494 1.200178 -0.858445 0.360045 1.247247 -0.083288 -0.300864 -0.139956 1.199817 -0.845823 0.006996 -0.256483 -0.305081 -0.273301 -0.842211 -0.871811 -0.158276 0.709511 0.342380 0.042574 -0.498069 1.234261 0.815984 1.362661 0.809933 -0.569808 0.856585 -0.046946 -0.843828 0.252309 -0.121675 2.097951 -1.164403 -0.510316 -1.188567 1.007404 -0.493780 -0.455471 
praise -0.188366 0.346525 -2.003341 -0.899290 -0.261974 1.349113 1.266619 1.543028 1.539138 1.661078 -1.888435 -0.073525 0.389610 0.357454 -0.268515 -0.075199 -1.387164 1.483734 1.703259 -0.222669 1.214025 0.897216 0.137707 -0.487341 -0.706668 1.278505 2.103156 0.069509 1.591331 -1.096877 -0.846323 -1.453834 1.057055 -0.114037 -0.205810 -0.742078 -0.568810 0.085232 -0.127124 0.294089 -0.741346 -0.344864 1.519329 0.124312 0.760242 -0.012833 1.492900 -0.097056 -0.079485 0.814924 1.649810 -0.615672 -1.230127 0.209739 -0.177633 -0.739935 0.805761 1.224378 1.711617 -0.251711 1.537479 0.370310 0.058616 1.213740 -1.100367 -0.236789 1.764780 0.071073 -0.830154 -0.436442 0.846675 -1.562765 -0.112595 -0.032835 0.001770 0.306124 -1.223614 -0.996957 0.348265 1.086403 0.314599 0.477523 -0.352067 1.255261 0.876371 1.351370 0.684703 -0.601979 0.801774 -0.513801 -0.943292 0.286000 0.063788 2.368491 -1.168682 -0.802378 -0.769924 -0.267649 -0.427873 0.198701 
agreement -0.187012 0.263341 -1.907391 -0.790416 -0.210822 1.226868 1.289691 1.384009 1.448397 1.238810 -2.044048 -0.181006 0.449322 0.269094 -0.371008 0.030766 -1.368441 1.527758 1.793215 -0.135814 1.368171 0.920466 0.179439 -0.538741 -0.692078 1.383839 2.206265 0.150147 1.630961 -1.076742 -0.846385 -1.476635 1.274153 -0.328552 -0.107472 -0.549839 -0.713426 -0.062935 -0.134007 0.410007 -0.598364 -0.375681 1.457542 0.166834 0.737447 0.028357 1.526445 -0.104598 -0.013739 0.901819 1.823875 -0.646566 -1.397449 -0.019934 -0.235293 -0.769981 0.627777 1.572317 1.700165 -0.149724 1.749395 0.431510 0.080103 1.178381 -0.907412 -0.568021 1.897200 0.395016 -1.087787 -0.603205 0.915551 -1.748860 0.014650 0.137021 -0.155467 0.238817 -1.158046 -1.355005 0.399234 1.167886 0.311259 0.741340 -0.300001 1.254933 1.132596 1.616182 0.665015 -0.520914 0.915605 -0.673446 -1.156218 0.580932 0.098625 2.305979 -1.116721 -0.696504 -0.761186 -0.405214 -0.440359 0.444841 
